%YAML:1.0
---
opencv_ml_rtrees:
   format: 3
   is_classifier: 1
   var_all: 26
   var_count: 25
   ord_var_count: 25
   cat_var_count: 1
   training_params:
      use_surrogates: 0
      max_categories: 10
      regression_accuracy: 0.
      max_depth: 5
      min_sample_count: 10
      cross_validation_folds: 0
      nactive_vars: 0
   global_var_idx: 1
   var_idx: [ 0, 1, 2, 3, 4, 5, 6, 7, 8, 9, 10, 11, 12, 13, 14, 15, 16,
       17, 18, 19, 20, 21, 22, 23, 24 ]
   var_type: [ 0, 0, 0, 0, 0, 0, 0, 0, 0, 0, 0, 0, 0, 0, 0, 0, 0, 0, 0,
       0, 0, 0, 0, 0, 0, 1 ]
   cat_ofs: [ 0, 0, 0, 0, 0, 0, 0, 0, 0, 0, 0, 0, 0, 0, 0, 0, 0, 0, 0, 0,
       0, 0, 0, 0, 0, 0, 0, 0, 0, 0, 0, 0, 0, 0, 0, 0, 0, 0, 0, 0, 0, 0,
       0, 0, 0, 0, 0, 0, 0, 0 ]
   class_labels: [ 1, 2, 3, 4, 5 ]
   missing_subst: [ 0., 0., 0., 0., 0., 0., 0., 0., 0., 0., 0., 0., 0.,
       0., 0., 0., 0., 0., 0., 0., 0., 0., 0., 0., 0., 0. ]
   oob_error: 4.2253521126760563e-02
   ntrees: 1
   trees:
      -
         nodes:
            -
               depth: 0
               value: 1.
               norm_class_idx: 0
               splits:
                  - { var:24, quality:2.9132681274414062e+02,
                      le:2.4231651306152344e+01 }
            -
               depth: 1
               value: 3.
               norm_class_idx: 2
               splits:
                  - { var:21, quality:1.9367959594726562e+02,
                      le:2.8394551277160645e+00 }
            -
               depth: 2
               value: 2.
               norm_class_idx: 1
               splits:
                  - { var:24, quality:1.6833079528808594e+02,
                      le:1.8968749046325684e+00 }
            -
               depth: 3
               value: 2.
               norm_class_idx: 1
               splits:
                  - { var:8, quality:9.2090911865234375e+01,
                      le:4.4468700885772705e-01 }
            -
               depth: 4
               value: 2.
               norm_class_idx: 1
            -
               depth: 4
               value: 2.
               norm_class_idx: 1
               splits:
                  - { var:0, quality:2.0500000000000000e+01,
                      le:5.7863801717758179e-01 }
            -
               depth: 5
               value: 2.
               norm_class_idx: 1
            -
               depth: 5
               value: 2.
               norm_class_idx: 1
            -
               depth: 3
               value: 5.
               norm_class_idx: 4
               splits:
                  - { var:8, quality:7.8216865539550781e+01,
                      le:-8.6553549766540527e-01 }
            -
               depth: 4
               value: 2.
               norm_class_idx: 1
            -
               depth: 4
               value: 5.
               norm_class_idx: 4
               splits:
                  - { var:17, quality:7.9097564697265625e+01,
                      le:-1.7760699987411499e+00 }
            -
               depth: 5
               value: 3.
               norm_class_idx: 2
            -
               depth: 5
               value: 5.
               norm_class_idx: 4
            -
               depth: 2
               value: 3.
               norm_class_idx: 2
               splits:
                  - { var:22, quality:1.9480952453613281e+02,
                      le:2.4891800880432129e+00 }
            -
               depth: 3
               value: 4.
               norm_class_idx: 3
            -
               depth: 3
               value: 3.
               norm_class_idx: 2
               splits:
                  - { var:17, quality:1.3119847106933594e+02,
                      le:1.2056100368499756e+00 }
            -
               depth: 4
               value: 3.
               norm_class_idx: 2
               splits:
                  - { var:16, quality:1.2401709747314453e+02,
                      le:1.0069365501403809e+00 }
            -
               depth: 5
               value: 3.
               norm_class_idx: 2
            -
               depth: 5
               value: 3.
               norm_class_idx: 2
            -
               depth: 4
               value: 1.
               norm_class_idx: 0
               splits:
                  - { var:5, quality:1.2800000190734863e+01,
                      le:-5.2110147476196289e-01 }
            -
               depth: 5
               value: 1.
               norm_class_idx: 0
            -
               depth: 5
               value: 3.
               norm_class_idx: 2
            -
               depth: 1
               value: 1.
               norm_class_idx: 0
               splits:
                  - { var:0, quality:1.9115383911132812e+02,
                      le:1.8843450546264648e+00 }
            -
               depth: 2
               value: 1.
               norm_class_idx: 0
            -
               depth: 2
               value: 1.
               norm_class_idx: 0
               splits:
                  - { var:0, quality:13., le:1.8962550163269043e+00 }
            -
               depth: 3
               value: 4.
               norm_class_idx: 3
            -
               depth: 3
               value: 1.
               norm_class_idx: 0
